solver_type L2R_L2LOSS_SVC_DUAL
nr_class 4
label 1 2 3 4
nr_feature 16
bias -1
w
0.7193885156320752 -0.7208642076974128 -0.6078635414714196 -0.6080457165614148 
0.2358845531968738 -0.2411416405296423 -0.3405477696114487 -0.3467428609356911 
-0.4 0.4 -0.3999999999999999 -0.4 
-0.6666666666666666 0.6666666666666665 -0.6666666666666666 -0.6666666666666666 
-0.845899562615375 -0.8537078481277514 0.6101491715137054 -0.5994578947755621 
-0.8143267642413023 -0.8151032365856994 -0.812991631089075 0.8167792624048991 
-0.1147795574263379 -0.1252366187711748 -1.270069272747988 1.27861847423459 
0.2026944771747689 -0.1945029994270759 -0.4007411352823566 -0.4 
0.5332411746066933 -0.530000654362618 -0.3995059098117623 -0.4 
-0.8756587789850587 0.8755709708660917 -0.6666666666666666 -0.6666666666666666 
-0.1291493532530754 -0.1188349896974613 0.3219591504935304 -0.3078366835105996 
-0.07426929430347907 -0.07395870536572026 -0.07339903586607661 0.07521223344135347 
-0.07426929430347907 -0.07395870536572026 -0.07339903586607661 0.07521223344135347 
-0.4 0.4 -0.4000000000000001 -0.4 
0.6666666666666666 -0.6666666666666666 -0.6666666666666666 -0.6666666666666666 
0.1870743229119499 -0.1885073095050381 -0.2660805463893766 -0.2613028556257234 
