solver_type L2R_L2LOSS_SVC_DUAL
nr_class 4
label 1 2 3 4
nr_feature 14
bias -1
w
0.4619771933728178 -0.4640092546167122 -0.4560407115852109 -0.4642879134142906 
0.4619771933728178 -0.4640092546167122 -0.4560407115852109 -0.4642879134142906 
-0.4 0.4 -0.4 -0.4 
-0.6666666666666665 0.6666666666666666 -0.6666666666666667 -0.6666666666666666 
-0.8535463480120432 -0.8506094237261115 0.6101457931903238 -0.6013391276332944 
-0.8188946169850022 -0.8148601970333063 -0.8161207494697749 0.8131055960567317 
-0.1205944241182985 -0.1181330334372995 -1.278660159186792 1.28785226907251 
-0.0001048575999999746 -4.194304000000089e-05 -0.5714357616640001 -0.5714105958400001 
0.666491904 -0.66663870464 -0.28572626944 -0.28572626944 
-0.6665967616 0.6665967616 -0.2857094922239999 -0.2856843264 
-0.124437533652217 -0.1206720501886921 0.3217488108198351 -0.3175275319407353 
-0.0724421532059991 -0.07414274402317469 -0.07452619051238168 0.0735752065119865 
-0.0724421532059991 -0.07414274402317469 -0.07452619051238168 0.0735752065119865 
-0.4 0.4 -0.4 -0.4 
